digraph Tree {
node [shape=box, style="filled, rounded", color="black", fontname=helvetica] ;
edge [fontname=helvetica] ;
0 [label=" CourseType <= 5.5\ngini = 0.666\nsamples = 151\nvalue = [49, 50, 52]\nclass = 3", fillcolor="#8139e505"] ;
1 [label="EnglishSpeaker <= 1.5\ngini = 0.634\nsamples = 81\nvalue = [33, 15, 33]\nclass = 1", fillcolor="#e5813900"] ;
0 -> 1 [labeldistance=2.5, labelangle=45, headlabel="True"] ;
2 [label=" ClassSize <= 20.5\ngini = 0.39\nsamples = 21\nvalue = [3, 2, 16]\nclass = 3", fillcolor="#8139e5b8"] ;
1 -> 2 ;
3 [label="gini = 0.625\nsamples = 8\nvalue = [2, 2, 4]\nclass = 3", fillcolor="#8139e555"] ;
2 -> 3 ;
4 [label=" CourseInstructorType <= 22.5\ngini = 0.142\nsamples = 13\nvalue = [1, 0, 12]\nclass = 3", fillcolor="#8139e5ea"] ;
2 -> 4 ;
5 [label="gini = 0.0\nsamples = 8\nvalue = [0, 0, 8]\nclass = 3", fillcolor="#8139e5ff"] ;
4 -> 5 ;
6 [label="gini = 0.32\nsamples = 5\nvalue = [1, 0, 4]\nclass = 3", fillcolor="#8139e5bf"] ;
4 -> 6 ;
7 [label=" SummerOrRegular <= 1.5\ngini = 0.623\nsamples = 60\nvalue = [30, 13, 17]\nclass = 1", fillcolor="#e581394d"] ;
1 -> 7 ;
8 [label=" ClassSize <= 18.5\ngini = 0.397\nsamples = 11\nvalue = [0, 3, 8]\nclass = 3", fillcolor="#8139e59f"] ;
7 -> 8 ;
9 [label="gini = 0.48\nsamples = 5\nvalue = [0, 2, 3]\nclass = 3", fillcolor="#8139e555"] ;
8 -> 9 ;
10 [label="gini = 0.278\nsamples = 6\nvalue = [0, 1, 5]\nclass = 3", fillcolor="#8139e5cc"] ;
8 -> 10 ;
11 [label=" CourseInstructorType <= 6.5\ngini = 0.55\nsamples = 49\nvalue = [30, 10, 9]\nclass = 1", fillcolor="#e5813983"] ;
7 -> 11 ;
12 [label="gini = 0.0\nsamples = 6\nvalue = [6, 0, 0]\nclass = 1", fillcolor="#e58139ff"] ;
11 -> 12 ;
13 [label=" CourseInstructorType <= 9.5\ngini = 0.591\nsamples = 43\nvalue = [24, 10, 9]\nclass = 1", fillcolor="#e581396c"] ;
11 -> 13 ;
14 [label="gini = 0.594\nsamples = 8\nvalue = [1, 3, 4]\nclass = 3", fillcolor="#8139e533"] ;
13 -> 14 ;
15 [label="gini = 0.508\nsamples = 35\nvalue = [23, 7, 5]\nclass = 1", fillcolor="#e5813992"] ;
13 -> 15 ;
16 [label=" CourseInstructorType <= 19.0\ngini = 0.624\nsamples = 70\nvalue = [16, 35, 19]\nclass = 2", fillcolor="#39e58150"] ;
0 -> 16 [labeldistance=2.5, labelangle=-45, headlabel="False"] ;
17 [label=" CourseType <= 16.5\ngini = 0.647\nsamples = 63\nvalue = [16, 28, 19]\nclass = 2", fillcolor="#39e58134"] ;
16 -> 17 ;
18 [label=" ClassSize <= 19.0\ngini = 0.63\nsamples = 38\nvalue = [14, 17, 7]\nclass = 2", fillcolor="#39e58120"] ;
17 -> 18 ;
19 [label="gini = 0.346\nsamples = 9\nvalue = [0, 7, 2]\nclass = 2", fillcolor="#39e581b6"] ;
18 -> 19 ;
20 [label=" CourseType <= 8.5\ngini = 0.618\nsamples = 29\nvalue = [14, 10, 5]\nclass = 1", fillcolor="#e5813936"] ;
18 -> 20 ;
21 [label="gini = 0.278\nsamples = 6\nvalue = [5, 1, 0]\nclass = 1", fillcolor="#e58139cc"] ;
20 -> 21 ;
22 [label="gini = 0.647\nsamples = 23\nvalue = [9, 9, 5]\nclass = 1", fillcolor="#e5813900"] ;
20 -> 22 ;
23 [label=" ClassSize <= 40.5\ngini = 0.57\nsamples = 25\nvalue = [2, 11, 12]\nclass = 3", fillcolor="#8139e512"] ;
17 -> 23 ;
24 [label=" CourseInstructorType <= 9.5\ngini = 0.494\nsamples = 18\nvalue = [2, 4, 12]\nclass = 3", fillcolor="#8139e592"] ;
23 -> 24 ;
25 [label="gini = 0.48\nsamples = 5\nvalue = [0, 3, 2]\nclass = 2", fillcolor="#39e58155"] ;
24 -> 25 ;
26 [label="gini = 0.379\nsamples = 13\nvalue = [2, 1, 10]\nclass = 3", fillcolor="#8139e5b9"] ;
24 -> 26 ;
27 [label="gini = 0.0\nsamples = 7\nvalue = [0, 7, 0]\nclass = 2", fillcolor="#39e581ff"] ;
23 -> 27 ;
28 [label="gini = 0.0\nsamples = 7\nvalue = [0, 7, 0]\nclass = 2", fillcolor="#39e581ff"] ;
16 -> 28 ;
}